digraph Tree {
node [shape=box, style="filled, rounded", color="black", fontname="helvetica"] ;
edge [fontname="helvetica"] ;
0 [label="nose_wide <= 0.5\ngini = 0.5\nsamples = 4500\nvalue = [2261, 2239]\nclass = male", fillcolor="#fffefd"] ;
1 [label="distance_nose_to_lip_long <= 0.5\ngini = 0.22\nsamples = 2293\nvalue = [2005, 288]\nclass = male", fillcolor="#e99355"] ;
0 -> 1 [labeldistance=2.5, labelangle=45, headlabel="True"] ;
2 [label="forehead_width_cm <= 14.35\ngini = 0.037\nsamples = 1799\nvalue = [1765, 34]\nclass = male", fillcolor="#e6833d"] ;
1 -> 2 ;
3 [label="forehead_height_cm <= 6.65\ngini = 0.024\nsamples = 1787\nvalue = [1765, 22]\nclass = male", fillcolor="#e5833b"] ;
2 -> 3 ;
4 [label="lips_thin <= 0.5\ngini = 0.021\nsamples = 1784\nvalue = [1765, 19]\nclass = male", fillcolor="#e5823b"] ;
3 -> 4 ;
5 [label="forehead_width_cm <= 13.45\ngini = 0.003\nsamples = 1553\nvalue = [1551, 2]\nclass = male", fillcolor="#e58139"] ;
4 -> 5 ;
6 [label="gini = 0.0\nsamples = 1112\nvalue = [1112, 0]\nclass = male", fillcolor="#e58139"] ;
5 -> 6 ;
7 [label="forehead_width_cm <= 13.75\ngini = 0.009\nsamples = 441\nvalue = [439, 2]\nclass = male", fillcolor="#e5823a"] ;
5 -> 7 ;
8 [label="nose_long <= 0.5\ngini = 0.03\nsamples = 131\nvalue = [129, 2]\nclass = male", fillcolor="#e5833c"] ;
7 -> 8 ;
9 [label="forehead_height_cm <= 6.05\ngini = 0.017\nsamples = 116\nvalue = [115, 1]\nclass = male", fillcolor="#e5823b"] ;
8 -> 9 ;
10 [label="gini = 0.0\nsamples = 77\nvalue = [77, 0]\nclass = male", fillcolor="#e58139"] ;
9 -> 10 ;
11 [label="forehead_height_cm <= 6.15\ngini = 0.05\nsamples = 39\nvalue = [38, 1]\nclass = male", fillcolor="#e6843e"] ;
9 -> 11 ;
12 [label="forehead_width_cm <= 13.65\ngini = 0.117\nsamples = 16\nvalue = [15, 1]\nclass = male", fillcolor="#e78946"] ;
11 -> 12 ;
13 [label="gini = 0.0\nsamples = 7\nvalue = [7, 0]\nclass = male", fillcolor="#e58139"] ;
12 -> 13 ;
14 [label="gini = 0.198\nsamples = 9\nvalue = [8, 1]\nclass = male", fillcolor="#e89152"] ;
12 -> 14 ;
15 [label="gini = 0.0\nsamples = 23\nvalue = [23, 0]\nclass = male", fillcolor="#e58139"] ;
11 -> 15 ;
16 [label="forehead_width_cm <= 13.55\ngini = 0.124\nsamples = 15\nvalue = [14, 1]\nclass = male", fillcolor="#e78a47"] ;
8 -> 16 ;
17 [label="forehead_height_cm <= 5.55\ngini = 0.32\nsamples = 5\nvalue = [4, 1]\nclass = male", fillcolor="#eca06a"] ;
16 -> 17 ;
18 [label="forehead_height_cm <= 5.35\ngini = 0.5\nsamples = 2\nvalue = [1, 1]\nclass = male", fillcolor="#ffffff"] ;
17 -> 18 ;
19 [label="gini = 0.0\nsamples = 1\nvalue = [1, 0]\nclass = male", fillcolor="#e58139"] ;
18 -> 19 ;
20 [label="gini = 0.0\nsamples = 1\nvalue = [0, 1]\nclass = female", fillcolor="#399de5"] ;
18 -> 20 ;
21 [label="gini = 0.0\nsamples = 3\nvalue = [3, 0]\nclass = male", fillcolor="#e58139"] ;
17 -> 21 ;
22 [label="gini = 0.0\nsamples = 10\nvalue = [10, 0]\nclass = male", fillcolor="#e58139"] ;
16 -> 22 ;
23 [label="gini = 0.0\nsamples = 310\nvalue = [310, 0]\nclass = male", fillcolor="#e58139"] ;
7 -> 23 ;
24 [label="nose_long <= 0.5\ngini = 0.136\nsamples = 231\nvalue = [214, 17]\nclass = male", fillcolor="#e78b49"] ;
4 -> 24 ;
25 [label="forehead_height_cm <= 5.35\ngini = 0.011\nsamples = 178\nvalue = [177, 1]\nclass = male", fillcolor="#e5823a"] ;
24 -> 25 ;
26 [label="forehead_width_cm <= 13.55\ngini = 0.059\nsamples = 33\nvalue = [32, 1]\nclass = male", fillcolor="#e6853f"] ;
25 -> 26 ;
27 [label="gini = 0.0\nsamples = 24\nvalue = [24, 0]\nclass = male", fillcolor="#e58139"] ;
26 -> 27 ;
28 [label="forehead_width_cm <= 13.65\ngini = 0.198\nsamples = 9\nvalue = [8, 1]\nclass = male", fillcolor="#e89152"] ;
26 -> 28 ;
29 [label="gini = 0.0\nsamples = 1\nvalue = [0, 1]\nclass = female", fillcolor="#399de5"] ;
28 -> 29 ;
30 [label="gini = 0.0\nsamples = 8\nvalue = [8, 0]\nclass = male", fillcolor="#e58139"] ;
28 -> 30 ;
31 [label="gini = 0.0\nsamples = 145\nvalue = [145, 0]\nclass = male", fillcolor="#e58139"] ;
25 -> 31 ;
32 [label="forehead_width_cm <= 12.75\ngini = 0.422\nsamples = 53\nvalue = [37, 16]\nclass = male", fillcolor="#f0b78f"] ;
24 -> 32 ;
33 [label="forehead_height_cm <= 5.45\ngini = 0.278\nsamples = 18\nvalue = [15, 3]\nclass = male", fillcolor="#ea9a61"] ;
32 -> 33 ;
34 [label="forehead_width_cm <= 12.4\ngini = 0.48\nsamples = 5\nvalue = [3, 2]\nclass = male", fillcolor="#f6d5bd"] ;
33 -> 34 ;
35 [label="forehead_width_cm <= 12.0\ngini = 0.444\nsamples = 3\nvalue = [1, 2]\nclass = female", fillcolor="#9ccef2"] ;
34 -> 35 ;
36 [label="gini = 0.0\nsamples = 1\nvalue = [1, 0]\nclass = male", fillcolor="#e58139"] ;
35 -> 36 ;
37 [label="gini = 0.0\nsamples = 2\nvalue = [0, 2]\nclass = female", fillcolor="#399de5"] ;
35 -> 37 ;
38 [label="gini = 0.0\nsamples = 2\nvalue = [2, 0]\nclass = male", fillcolor="#e58139"] ;
34 -> 38 ;
39 [label="forehead_height_cm <= 6.35\ngini = 0.142\nsamples = 13\nvalue = [12, 1]\nclass = male", fillcolor="#e78c49"] ;
33 -> 39 ;
40 [label="gini = 0.0\nsamples = 10\nvalue = [10, 0]\nclass = male", fillcolor="#e58139"] ;
39 -> 40 ;
41 [label="forehead_height_cm <= 6.45\ngini = 0.444\nsamples = 3\nvalue = [2, 1]\nclass = male", fillcolor="#f2c09c"] ;
39 -> 41 ;
42 [label="gini = 0.5\nsamples = 2\nvalue = [1, 1]\nclass = male", fillcolor="#ffffff"] ;
41 -> 42 ;
43 [label="gini = 0.0\nsamples = 1\nvalue = [1, 0]\nclass = male", fillcolor="#e58139"] ;
41 -> 43 ;
44 [label="forehead_width_cm <= 13.15\ngini = 0.467\nsamples = 35\nvalue = [22, 13]\nclass = male", fillcolor="#f4cbae"] ;
32 -> 44 ;
45 [label="forehead_height_cm <= 5.75\ngini = 0.408\nsamples = 7\nvalue = [2, 5]\nclass = female", fillcolor="#88c4ef"] ;
44 -> 45 ;
46 [label="forehead_height_cm <= 5.3\ngini = 0.5\nsamples = 4\nvalue = [2, 2]\nclass = male", fillcolor="#ffffff"] ;
45 -> 46 ;
47 [label="gini = 0.0\nsamples = 1\nvalue = [0, 1]\nclass = female", fillcolor="#399de5"] ;
46 -> 47 ;
48 [label="forehead_width_cm <= 12.85\ngini = 0.444\nsamples = 3\nvalue = [2, 1]\nclass = male", fillcolor="#f2c09c"] ;
46 -> 48 ;
49 [label="gini = 0.0\nsamples = 1\nvalue = [0, 1]\nclass = female", fillcolor="#399de5"] ;
48 -> 49 ;
50 [label="gini = 0.0\nsamples = 2\nvalue = [2, 0]\nclass = male", fillcolor="#e58139"] ;
48 -> 50 ;
51 [label="gini = 0.0\nsamples = 3\nvalue = [0, 3]\nclass = female", fillcolor="#399de5"] ;
45 -> 51 ;
52 [label="forehead_width_cm <= 13.65\ngini = 0.408\nsamples = 28\nvalue = [20, 8]\nclass = male", fillcolor="#efb388"] ;
44 -> 52 ;
53 [label="forehead_width_cm <= 13.45\ngini = 0.32\nsamples = 15\nvalue = [12, 3]\nclass = male", fillcolor="#eca06a"] ;
52 -> 53 ;
54 [label="forehead_height_cm <= 5.9\ngini = 0.49\nsamples = 7\nvalue = [4, 3]\nclass = male", fillcolor="#f8e0ce"] ;
53 -> 54 ;
55 [label="forehead_width_cm <= 13.25\ngini = 0.48\nsamples = 5\nvalue = [2, 3]\nclass = female", fillcolor="#bddef6"] ;
54 -> 55 ;
56 [label="gini = 0.0\nsamples = 1\nvalue = [0, 1]\nclass = female", fillcolor="#399de5"] ;
55 -> 56 ;
57 [label="forehead_height_cm <= 5.6\ngini = 0.5\nsamples = 4\nvalue = [2, 2]\nclass = male", fillcolor="#ffffff"] ;
55 -> 57 ;
58 [label="forehead_width_cm <= 13.35\ngini = 0.444\nsamples = 3\nvalue = [2, 1]\nclass = male", fillcolor="#f2c09c"] ;
57 -> 58 ;
59 [label="gini = 0.0\nsamples = 2\nvalue = [2, 0]\nclass = male", fillcolor="#e58139"] ;
58 -> 59 ;
60 [label="gini = 0.0\nsamples = 1\nvalue = [0, 1]\nclass = female", fillcolor="#399de5"] ;
58 -> 60 ;
61 [label="gini = 0.0\nsamples = 1\nvalue = [0, 1]\nclass = female", fillcolor="#399de5"] ;
57 -> 61 ;
62 [label="gini = 0.0\nsamples = 2\nvalue = [2, 0]\nclass = male", fillcolor="#e58139"] ;
54 -> 62 ;
63 [label="gini = 0.0\nsamples = 8\nvalue = [8, 0]\nclass = male", fillcolor="#e58139"] ;
53 -> 63 ;
64 [label="forehead_height_cm <= 6.25\ngini = 0.473\nsamples = 13\nvalue = [8, 5]\nclass = male", fillcolor="#f5d0b5"] ;
52 -> 64 ;
65 [label="forehead_width_cm <= 13.85\ngini = 0.375\nsamples = 8\nvalue = [6, 2]\nclass = male", fillcolor="#eeab7b"] ;
64 -> 65 ;
66 [label="forehead_height_cm <= 6.0\ngini = 0.444\nsamples = 3\nvalue = [1, 2]\nclass = female", fillcolor="#9ccef2"] ;
65 -> 66 ;
67 [label="gini = 0.0\nsamples = 2\nvalue = [0, 2]\nclass = female", fillcolor="#399de5"] ;
66 -> 67 ;
68 [label="gini = 0.0\nsamples = 1\nvalue = [1, 0]\nclass = male", fillcolor="#e58139"] ;
66 -> 68 ;
69 [label="gini = 0.0\nsamples = 5\nvalue = [5, 0]\nclass = male", fillcolor="#e58139"] ;
65 -> 69 ;
70 [label="forehead_width_cm <= 13.9\ngini = 0.48\nsamples = 5\nvalue = [2, 3]\nclass = female", fillcolor="#bddef6"] ;
64 -> 70 ;
71 [label="forehead_height_cm <= 6.35\ngini = 0.444\nsamples = 3\nvalue = [2, 1]\nclass = male", fillcolor="#f2c09c"] ;
70 -> 71 ;
72 [label="gini = 0.0\nsamples = 1\nvalue = [0, 1]\nclass = female", fillcolor="#399de5"] ;
71 -> 72 ;
73 [label="gini = 0.0\nsamples = 2\nvalue = [2, 0]\nclass = male", fillcolor="#e58139"] ;
71 -> 73 ;
74 [label="gini = 0.0\nsamples = 2\nvalue = [0, 2]\nclass = female", fillcolor="#399de5"] ;
70 -> 74 ;
75 [label="gini = 0.0\nsamples = 3\nvalue = [0, 3]\nclass = female", fillcolor="#399de5"] ;
3 -> 75 ;
76 [label="gini = 0.0\nsamples = 12\nvalue = [0, 12]\nclass = female", fillcolor="#399de5"] ;
2 -> 76 ;
77 [label="lips_thin <= 0.5\ngini = 0.5\nsamples = 494\nvalue = [240, 254]\nclass = female", fillcolor="#f4fafe"] ;
1 -> 77 ;
78 [label="forehead_height_cm <= 6.55\ngini = 0.233\nsamples = 238\nvalue = [206, 32]\nclass = male", fillcolor="#e99558"] ;
77 -> 78 ;
79 [label="forehead_width_cm <= 14.4\ngini = 0.168\nsamples = 227\nvalue = [206, 21]\nclass = male", fillcolor="#e88e4d"] ;
78 -> 79 ;
80 [label="nose_long <= 0.5\ngini = 0.119\nsamples = 220\nvalue = [206, 14]\nclass = male", fillcolor="#e78a46"] ;
79 -> 80 ;
81 [label="forehead_width_cm <= 13.85\ngini = 0.022\nsamples = 178\nvalue = [176, 2]\nclass = male", fillcolor="#e5823b"] ;
80 -> 81 ;
82 [label="gini = 0.0\nsamples = 150\nvalue = [150, 0]\nclass = male", fillcolor="#e58139"] ;
81 -> 82 ;
83 [label="forehead_width_cm <= 13.95\ngini = 0.133\nsamples = 28\nvalue = [26, 2]\nclass = male", fillcolor="#e78b48"] ;
81 -> 83 ;
84 [label="forehead_height_cm <= 5.45\ngini = 0.278\nsamples = 6\nvalue = [5, 1]\nclass = male", fillcolor="#ea9a61"] ;
83 -> 84 ;
85 [label="forehead_height_cm <= 5.35\ngini = 0.5\nsamples = 2\nvalue = [1, 1]\nclass = male", fillcolor="#ffffff"] ;
84 -> 85 ;
86 [label="gini = 0.0\nsamples = 1\nvalue = [1, 0]\nclass = male", fillcolor="#e58139"] ;
85 -> 86 ;
87 [label="gini = 0.0\nsamples = 1\nvalue = [0, 1]\nclass = female", fillcolor="#399de5"] ;
85 -> 87 ;
88 [label="gini = 0.0\nsamples = 4\nvalue = [4, 0]\nclass = male", fillcolor="#e58139"] ;
84 -> 88 ;
89 [label="forehead_height_cm <= 6.15\ngini = 0.087\nsamples = 22\nvalue = [21, 1]\nclass = male", fillcolor="#e68742"] ;
83 -> 89 ;
90 [label="gini = 0.0\nsamples = 14\nvalue = [14, 0]\nclass = male", fillcolor="#e58139"] ;
89 -> 90 ;
91 [label="forehead_height_cm <= 6.3\ngini = 0.219\nsamples = 8\nvalue = [7, 1]\nclass = male", fillcolor="#e99355"] ;
89 -> 91 ;
92 [label="forehead_width_cm <= 14.05\ngini = 0.375\nsamples = 4\nvalue = [3, 1]\nclass = male", fillcolor="#eeab7b"] ;
91 -> 92 ;
93 [label="gini = 0.0\nsamples = 1\nvalue = [1, 0]\nclass = male", fillcolor="#e58139"] ;
92 -> 93 ;
94 [label="forehead_width_cm <= 14.2\ngini = 0.444\nsamples = 3\nvalue = [2, 1]\nclass = male", fillcolor="#f2c09c"] ;
92 -> 94 ;
95 [label="gini = 0.5\nsamples = 2\nvalue = [1, 1]\nclass = male", fillcolor="#ffffff"] ;
94 -> 95 ;
96 [label="gini = 0.0\nsamples = 1\nvalue = [1, 0]\nclass = male", fillcolor="#e58139"] ;
94 -> 96 ;
97 [label="gini = 0.0\nsamples = 4\nvalue = [4, 0]\nclass = male", fillcolor="#e58139"] ;
91 -> 97 ;
98 [label="forehead_height_cm <= 5.25\ngini = 0.408\nsamples = 42\nvalue = [30, 12]\nclass = male", fillcolor="#efb388"] ;
80 -> 98 ;
99 [label="forehead_width_cm <= 11.65\ngini = 0.375\nsamples = 4\nvalue = [1, 3]\nclass = female", fillcolor="#7bbeee"] ;
98 -> 99 ;
100 [label="gini = 0.0\nsamples = 1\nvalue = [1, 0]\nclass = male", fillcolor="#e58139"] ;
99 -> 100 ;
101 [label="gini = 0.0\nsamples = 3\nvalue = [0, 3]\nclass = female", fillcolor="#399de5"] ;
99 -> 101 ;
102 [label="forehead_width_cm <= 11.85\ngini = 0.361\nsamples = 38\nvalue = [29, 9]\nclass = male", fillcolor="#eda876"] ;
98 -> 102 ;
103 [label="gini = 0.0\nsamples = 8\nvalue = [8, 0]\nclass = male", fillcolor="#e58139"] ;
102 -> 103 ;
104 [label="forehead_height_cm <= 5.65\ngini = 0.42\nsamples = 30\nvalue = [21, 9]\nclass = male", fillcolor="#f0b78e"] ;
102 -> 104 ;
105 [label="forehead_width_cm <= 12.45\ngini = 0.496\nsamples = 11\nvalue = [6, 5]\nclass = male", fillcolor="#fbeade"] ;
104 -> 105 ;
106 [label="gini = 0.0\nsamples = 2\nvalue = [0, 2]\nclass = female", fillcolor="#399de5"] ;
105 -> 106 ;
107 [label="forehead_width_cm <= 13.35\ngini = 0.444\nsamples = 9\nvalue = [6, 3]\nclass = male", fillcolor="#f2c09c"] ;
105 -> 107 ;
108 [label="forehead_width_cm <= 12.95\ngini = 0.32\nsamples = 5\nvalue = [4, 1]\nclass = male", fillcolor="#eca06a"] ;
107 -> 108 ;
109 [label="forehead_height_cm <= 5.35\ngini = 0.5\nsamples = 2\nvalue = [1, 1]\nclass = male", fillcolor="#ffffff"] ;
108 -> 109 ;
110 [label="gini = 0.0\nsamples = 1\nvalue = [1, 0]\nclass = male", fillcolor="#e58139"] ;
109 -> 110 ;
111 [label="gini = 0.0\nsamples = 1\nvalue = [0, 1]\nclass = female", fillcolor="#399de5"] ;
109 -> 111 ;
112 [label="gini = 0.0\nsamples = 3\nvalue = [3, 0]\nclass = male", fillcolor="#e58139"] ;
108 -> 112 ;
113 [label="forehead_height_cm <= 5.45\ngini = 0.5\nsamples = 4\nvalue = [2, 2]\nclass = male", fillcolor="#ffffff"] ;
107 -> 113 ;
114 [label="forehead_width_cm <= 14.05\ngini = 0.444\nsamples = 3\nvalue = [1, 2]\nclass = female", fillcolor="#9ccef2"] ;
113 -> 114 ;
115 [label="gini = 0.0\nsamples = 2\nvalue = [0, 2]\nclass = female", fillcolor="#399de5"] ;
114 -> 115 ;
116 [label="gini = 0.0\nsamples = 1\nvalue = [1, 0]\nclass = male", fillcolor="#e58139"] ;
114 -> 116 ;
117 [label="gini = 0.0\nsamples = 1\nvalue = [1, 0]\nclass = male", fillcolor="#e58139"] ;
113 -> 117 ;
118 [label="forehead_height_cm <= 6.05\ngini = 0.332\nsamples = 19\nvalue = [15, 4]\nclass = male", fillcolor="#eca36e"] ;
104 -> 118 ;
119 [label="forehead_width_cm <= 13.4\ngini = 0.198\nsamples = 9\nvalue = [8, 1]\nclass = male", fillcolor="#e89152"] ;
118 -> 119 ;
120 [label="forehead_width_cm <= 13.2\ngini = 0.444\nsamples = 3\nvalue = [2, 1]\nclass = male", fillcolor="#f2c09c"] ;
119 -> 120 ;
121 [label="gini = 0.0\nsamples = 1\nvalue = [1, 0]\nclass = male", fillcolor="#e58139"] ;
120 -> 121 ;
122 [label="forehead_height_cm <= 5.85\ngini = 0.5\nsamples = 2\nvalue = [1, 1]\nclass = male", fillcolor="#ffffff"] ;
120 -> 122 ;
123 [label="gini = 0.0\nsamples = 1\nvalue = [0, 1]\nclass = female", fillcolor="#399de5"] ;
122 -> 123 ;
124 [label="gini = 0.0\nsamples = 1\nvalue = [1, 0]\nclass = male", fillcolor="#e58139"] ;
122 -> 124 ;
125 [label="gini = 0.0\nsamples = 6\nvalue = [6, 0]\nclass = male", fillcolor="#e58139"] ;
119 -> 125 ;
126 [label="forehead_height_cm <= 6.2\ngini = 0.42\nsamples = 10\nvalue = [7, 3]\nclass = male", fillcolor="#f0b78e"] ;
118 -> 126 ;
127 [label="gini = 0.0\nsamples = 1\nvalue = [0, 1]\nclass = female", fillcolor="#399de5"] ;
126 -> 127 ;
128 [label="forehead_height_cm <= 6.35\ngini = 0.346\nsamples = 9\nvalue = [7, 2]\nclass = male", fillcolor="#eca572"] ;
126 -> 128 ;
129 [label="gini = 0.0\nsamples = 3\nvalue = [3, 0]\nclass = male", fillcolor="#e58139"] ;
128 -> 129 ;
130 [label="forehead_width_cm <= 12.55\ngini = 0.444\nsamples = 6\nvalue = [4, 2]\nclass = male", fillcolor="#f2c09c"] ;
128 -> 130 ;
131 [label="gini = 0.0\nsamples = 2\nvalue = [2, 0]\nclass = male", fillcolor="#e58139"] ;
130 -> 131 ;
132 [label="forehead_height_cm <= 6.45\ngini = 0.5\nsamples = 4\nvalue = [2, 2]\nclass = male", fillcolor="#ffffff"] ;
130 -> 132 ;
133 [label="forehead_width_cm <= 13.25\ngini = 0.444\nsamples = 3\nvalue = [1, 2]\nclass = female", fillcolor="#9ccef2"] ;
132 -> 133 ;
134 [label="gini = 0.5\nsamples = 2\nvalue = [1, 1]\nclass = male", fillcolor="#ffffff"] ;
133 -> 134 ;
135 [label="gini = 0.0\nsamples = 1\nvalue = [0, 1]\nclass = female", fillcolor="#399de5"] ;
133 -> 135 ;
136 [label="gini = 0.0\nsamples = 1\nvalue = [1, 0]\nclass = male", fillcolor="#e58139"] ;
132 -> 136 ;
137 [label="gini = 0.0\nsamples = 7\nvalue = [0, 7]\nclass = female", fillcolor="#399de5"] ;
79 -> 137 ;
138 [label="gini = 0.0\nsamples = 11\nvalue = [0, 11]\nclass = female", fillcolor="#399de5"] ;
78 -> 138 ;
139 [label="nose_long <= 0.5\ngini = 0.23\nsamples = 256\nvalue = [34, 222]\nclass = female", fillcolor="#57ace9"] ;
77 -> 139 ;
140 [label="forehead_width_cm <= 14.25\ngini = 0.496\nsamples = 68\nvalue = [31, 37]\nclass = female", fillcolor="#dfeffb"] ;
139 -> 140 ;
141 [label="forehead_height_cm <= 6.65\ngini = 0.486\nsamples = 53\nvalue = [31, 22]\nclass = male", fillcolor="#f7dac6"] ;
140 -> 141 ;
142 [label="forehead_height_cm <= 5.75\ngini = 0.457\nsamples = 48\nvalue = [31, 17]\nclass = male", fillcolor="#f3c6a6"] ;
141 -> 142 ;
143 [label="forehead_height_cm <= 5.55\ngini = 0.32\nsamples = 20\nvalue = [16, 4]\nclass = male", fillcolor="#eca06a"] ;
142 -> 143 ;
144 [label="forehead_height_cm <= 5.45\ngini = 0.444\nsamples = 12\nvalue = [8, 4]\nclass = male", fillcolor="#f2c09c"] ;
143 -> 144 ;
145 [label="forehead_width_cm <= 13.5\ngini = 0.346\nsamples = 9\nvalue = [7, 2]\nclass = male", fillcolor="#eca572"] ;
144 -> 145 ;
146 [label="forehead_width_cm <= 12.95\ngini = 0.48\nsamples = 5\nvalue = [3, 2]\nclass = male", fillcolor="#f6d5bd"] ;
145 -> 146 ;
147 [label="gini = 0.0\nsamples = 2\nvalue = [2, 0]\nclass = male", fillcolor="#e58139"] ;
146 -> 147 ;
148 [label="forehead_width_cm <= 13.15\ngini = 0.444\nsamples = 3\nvalue = [1, 2]\nclass = female", fillcolor="#9ccef2"] ;
146 -> 148 ;
149 [label="gini = 0.0\nsamples = 1\nvalue = [0, 1]\nclass = female", fillcolor="#399de5"] ;
148 -> 149 ;
150 [label="gini = 0.5\nsamples = 2\nvalue = [1, 1]\nclass = male", fillcolor="#ffffff"] ;
148 -> 150 ;
151 [label="gini = 0.0\nsamples = 4\nvalue = [4, 0]\nclass = male", fillcolor="#e58139"] ;
145 -> 151 ;
152 [label="forehead_width_cm <= 13.15\ngini = 0.444\nsamples = 3\nvalue = [1, 2]\nclass = female", fillcolor="#9ccef2"] ;
144 -> 152 ;
153 [label="gini = 0.0\nsamples = 1\nvalue = [0, 1]\nclass = female", fillcolor="#399de5"] ;
152 -> 153 ;
154 [label="forehead_width_cm <= 13.55\ngini = 0.5\nsamples = 2\nvalue = [1, 1]\nclass = male", fillcolor="#ffffff"] ;
152 -> 154 ;
155 [label="gini = 0.0\nsamples = 1\nvalue = [1, 0]\nclass = male", fillcolor="#e58139"] ;
154 -> 155 ;
156 [label="gini = 0.0\nsamples = 1\nvalue = [0, 1]\nclass = female", fillcolor="#399de5"] ;
154 -> 156 ;
157 [label="gini = 0.0\nsamples = 8\nvalue = [8, 0]\nclass = male", fillcolor="#e58139"] ;
143 -> 157 ;
158 [label="forehead_width_cm <= 12.05\ngini = 0.497\nsamples = 28\nvalue = [15, 13]\nclass = male", fillcolor="#fceee5"] ;
142 -> 158 ;
159 [label="forehead_width_cm <= 11.45\ngini = 0.444\nsamples = 9\nvalue = [3, 6]\nclass = female", fillcolor="#9ccef2"] ;
158 -> 159 ;
160 [label="gini = 0.0\nsamples = 1\nvalue = [1, 0]\nclass = male", fillcolor="#e58139"] ;
159 -> 160 ;
161 [label="forehead_width_cm <= 11.75\ngini = 0.375\nsamples = 8\nvalue = [2, 6]\nclass = female", fillcolor="#7bbeee"] ;
159 -> 161 ;
162 [label="forehead_height_cm <= 5.9\ngini = 0.444\nsamples = 6\nvalue = [2, 4]\nclass = female", fillcolor="#9ccef2"] ;
161 -> 162 ;
163 [label="gini = 0.0\nsamples = 1\nvalue = [0, 1]\nclass = female", fillcolor="#399de5"] ;
162 -> 163 ;
164 [label="forehead_height_cm <= 6.25\ngini = 0.48\nsamples = 5\nvalue = [2, 3]\nclass = female", fillcolor="#bddef6"] ;
162 -> 164 ;
165 [label="forehead_width_cm <= 11.55\ngini = 0.5\nsamples = 4\nvalue = [2, 2]\nclass = male", fillcolor="#ffffff"] ;
164 -> 165 ;
166 [label="gini = 0.0\nsamples = 1\nvalue = [1, 0]\nclass = male", fillcolor="#e58139"] ;
165 -> 166 ;
167 [label="forehead_height_cm <= 6.1\ngini = 0.444\nsamples = 3\nvalue = [1, 2]\nclass = female", fillcolor="#9ccef2"] ;
165 -> 167 ;
168 [label="gini = 0.0\nsamples = 2\nvalue = [0, 2]\nclass = female", fillcolor="#399de5"] ;
167 -> 168 ;
169 [label="gini = 0.0\nsamples = 1\nvalue = [1, 0]\nclass = male", fillcolor="#e58139"] ;
167 -> 169 ;
170 [label="gini = 0.0\nsamples = 1\nvalue = [0, 1]\nclass = female", fillcolor="#399de5"] ;
164 -> 170 ;
171 [label="gini = 0.0\nsamples = 2\nvalue = [0, 2]\nclass = female", fillcolor="#399de5"] ;
161 -> 171 ;
172 [label="forehead_width_cm <= 12.5\ngini = 0.465\nsamples = 19\nvalue = [12, 7]\nclass = male", fillcolor="#f4caac"] ;
158 -> 172 ;
173 [label="gini = 0.0\nsamples = 4\nvalue = [4, 0]\nclass = male", fillcolor="#e58139"] ;
172 -> 173 ;
174 [label="forehead_width_cm <= 12.9\ngini = 0.498\nsamples = 15\nvalue = [8, 7]\nclass = male", fillcolor="#fcefe6"] ;
172 -> 174 ;
175 [label="forehead_width_cm <= 12.7\ngini = 0.375\nsamples = 4\nvalue = [1, 3]\nclass = female", fillcolor="#7bbeee"] ;
174 -> 175 ;
176 [label="forehead_height_cm <= 5.95\ngini = 0.5\nsamples = 2\nvalue = [1, 1]\nclass = male", fillcolor="#ffffff"] ;
175 -> 176 ;
177 [label="gini = 0.0\nsamples = 1\nvalue = [0, 1]\nclass = female", fillcolor="#399de5"] ;
176 -> 177 ;
178 [label="gini = 0.0\nsamples = 1\nvalue = [1, 0]\nclass = male", fillcolor="#e58139"] ;
176 -> 178 ;
179 [label="gini = 0.0\nsamples = 2\nvalue = [0, 2]\nclass = female", fillcolor="#399de5"] ;
175 -> 179 ;
180 [label="forehead_width_cm <= 13.15\ngini = 0.463\nsamples = 11\nvalue = [7, 4]\nclass = male", fillcolor="#f4c9aa"] ;
174 -> 180 ;
181 [label="gini = 0.0\nsamples = 2\nvalue = [2, 0]\nclass = male", fillcolor="#e58139"] ;
180 -> 181 ;
182 [label="forehead_width_cm <= 13.55\ngini = 0.494\nsamples = 9\nvalue = [5, 4]\nclass = male", fillcolor="#fae6d7"] ;
180 -> 182 ;
183 [label="gini = 0.0\nsamples = 2\nvalue = [0, 2]\nclass = female", fillcolor="#399de5"] ;
182 -> 183 ;
184 [label="forehead_width_cm <= 13.95\ngini = 0.408\nsamples = 7\nvalue = [5, 2]\nclass = male", fillcolor="#efb388"] ;
182 -> 184 ;
185 [label="gini = 0.0\nsamples = 3\nvalue = [3, 0]\nclass = male", fillcolor="#e58139"] ;
184 -> 185 ;
186 [label="forehead_height_cm <= 6.35\ngini = 0.5\nsamples = 4\nvalue = [2, 2]\nclass = male", fillcolor="#ffffff"] ;
184 -> 186 ;
187 [label="gini = 0.0\nsamples = 2\nvalue = [0, 2]\nclass = female", fillcolor="#399de5"] ;
186 -> 187 ;
188 [label="gini = 0.0\nsamples = 2\nvalue = [2, 0]\nclass = male", fillcolor="#e58139"] ;
186 -> 188 ;
189 [label="gini = 0.0\nsamples = 5\nvalue = [0, 5]\nclass = female", fillcolor="#399de5"] ;
141 -> 189 ;
190 [label="gini = 0.0\nsamples = 15\nvalue = [0, 15]\nclass = female", fillcolor="#399de5"] ;
140 -> 190 ;
191 [label="forehead_height_cm <= 5.15\ngini = 0.031\nsamples = 188\nvalue = [3, 185]\nclass = female", fillcolor="#3c9fe5"] ;
139 -> 191 ;
192 [label="forehead_width_cm <= 14.15\ngini = 0.245\nsamples = 7\nvalue = [1, 6]\nclass = female", fillcolor="#5aade9"] ;
191 -> 192 ;
193 [label="forehead_width_cm <= 12.85\ngini = 0.5\nsamples = 2\nvalue = [1, 1]\nclass = male", fillcolor="#ffffff"] ;
192 -> 193 ;
194 [label="gini = 0.0\nsamples = 1\nvalue = [0, 1]\nclass = female", fillcolor="#399de5"] ;
193 -> 194 ;
195 [label="gini = 0.0\nsamples = 1\nvalue = [1, 0]\nclass = male", fillcolor="#e58139"] ;
193 -> 195 ;
196 [label="gini = 0.0\nsamples = 5\nvalue = [0, 5]\nclass = female", fillcolor="#399de5"] ;
192 -> 196 ;
197 [label="forehead_width_cm <= 12.45\ngini = 0.022\nsamples = 181\nvalue = [2, 179]\nclass = female", fillcolor="#3b9ee5"] ;
191 -> 197 ;
198 [label="forehead_width_cm <= 12.35\ngini = 0.085\nsamples = 45\nvalue = [2, 43]\nclass = female", fillcolor="#42a2e6"] ;
197 -> 198 ;
199 [label="forehead_width_cm <= 11.85\ngini = 0.049\nsamples = 40\nvalue = [1, 39]\nclass = female", fillcolor="#3ea0e6"] ;
198 -> 199 ;
200 [label="forehead_width_cm <= 11.75\ngini = 0.111\nsamples = 17\nvalue = [1, 16]\nclass = female", fillcolor="#45a3e7"] ;
199 -> 200 ;
201 [label="gini = 0.0\nsamples = 13\nvalue = [0, 13]\nclass = female", fillcolor="#399de5"] ;
200 -> 201 ;
202 [label="forehead_height_cm <= 5.9\ngini = 0.375\nsamples = 4\nvalue = [1, 3]\nclass = female", fillcolor="#7bbeee"] ;
200 -> 202 ;
203 [label="gini = 0.0\nsamples = 2\nvalue = [0, 2]\nclass = female", fillcolor="#399de5"] ;
202 -> 203 ;
204 [label="forehead_height_cm <= 6.35\ngini = 0.5\nsamples = 2\nvalue = [1, 1]\nclass = male", fillcolor="#ffffff"] ;
202 -> 204 ;
205 [label="gini = 0.0\nsamples = 1\nvalue = [1, 0]\nclass = male", fillcolor="#e58139"] ;
204 -> 205 ;
206 [label="gini = 0.0\nsamples = 1\nvalue = [0, 1]\nclass = female", fillcolor="#399de5"] ;
204 -> 206 ;
207 [label="gini = 0.0\nsamples = 23\nvalue = [0, 23]\nclass = female", fillcolor="#399de5"] ;
199 -> 207 ;
208 [label="forehead_height_cm <= 6.0\ngini = 0.32\nsamples = 5\nvalue = [1, 4]\nclass = female", fillcolor="#6ab6ec"] ;
198 -> 208 ;
209 [label="gini = 0.0\nsamples = 2\nvalue = [0, 2]\nclass = female", fillcolor="#399de5"] ;
208 -> 209 ;
210 [label="forehead_height_cm <= 6.4\ngini = 0.444\nsamples = 3\nvalue = [1, 2]\nclass = female", fillcolor="#9ccef2"] ;
208 -> 210 ;
211 [label="gini = 0.0\nsamples = 1\nvalue = [1, 0]\nclass = male", fillcolor="#e58139"] ;
210 -> 211 ;
212 [label="gini = 0.0\nsamples = 2\nvalue = [0, 2]\nclass = female", fillcolor="#399de5"] ;
210 -> 212 ;
213 [label="gini = 0.0\nsamples = 136\nvalue = [0, 136]\nclass = female", fillcolor="#399de5"] ;
197 -> 213 ;
214 [label="nose_long <= 0.5\ngini = 0.205\nsamples = 2207\nvalue = [256, 1951]\nclass = female", fillcolor="#53aae8"] ;
0 -> 214 [labeldistance=2.5, labelangle=-45, headlabel="False"] ;
215 [label="distance_nose_to_lip_long <= 0.5\ngini = 0.5\nsamples = 453\nvalue = [230, 223]\nclass = male", fillcolor="#fefbf9"] ;
214 -> 215 ;
216 [label="lips_thin <= 0.5\ngini = 0.201\nsamples = 230\nvalue = [204, 26]\nclass = male", fillcolor="#e89152"] ;
215 -> 216 ;
217 [label="forehead_height_cm <= 6.65\ngini = 0.032\nsamples = 184\nvalue = [181, 3]\nclass = male", fillcolor="#e5833c"] ;
216 -> 217 ;
218 [label="forehead_width_cm <= 13.65\ngini = 0.011\nsamples = 182\nvalue = [181, 1]\nclass = male", fillcolor="#e5823a"] ;
217 -> 218 ;
219 [label="gini = 0.0\nsamples = 144\nvalue = [144, 0]\nclass = male", fillcolor="#e58139"] ;
218 -> 219 ;
220 [label="forehead_width_cm <= 13.75\ngini = 0.051\nsamples = 38\nvalue = [37, 1]\nclass = male", fillcolor="#e6843e"] ;
218 -> 220 ;
221 [label="forehead_height_cm <= 6.0\ngini = 0.278\nsamples = 6\nvalue = [5, 1]\nclass = male", fillcolor="#ea9a61"] ;
220 -> 221 ;
222 [label="forehead_height_cm <= 5.7\ngini = 0.444\nsamples = 3\nvalue = [2, 1]\nclass = male", fillcolor="#f2c09c"] ;
221 -> 222 ;
223 [label="gini = 0.0\nsamples = 1\nvalue = [1, 0]\nclass = male", fillcolor="#e58139"] ;
222 -> 223 ;
224 [label="gini = 0.5\nsamples = 2\nvalue = [1, 1]\nclass = male", fillcolor="#ffffff"] ;
222 -> 224 ;
225 [label="gini = 0.0\nsamples = 3\nvalue = [3, 0]\nclass = male", fillcolor="#e58139"] ;
221 -> 225 ;
226 [label="gini = 0.0\nsamples = 32\nvalue = [32, 0]\nclass = male", fillcolor="#e58139"] ;
220 -> 226 ;
227 [label="gini = 0.0\nsamples = 2\nvalue = [0, 2]\nclass = female", fillcolor="#399de5"] ;
217 -> 227 ;
228 [label="forehead_height_cm <= 6.55\ngini = 0.5\nsamples = 46\nvalue = [23, 23]\nclass = male", fillcolor="#ffffff"] ;
216 -> 228 ;
229 [label="forehead_width_cm <= 13.75\ngini = 0.484\nsamples = 39\nvalue = [23, 16]\nclass = male", fillcolor="#f7d9c3"] ;
228 -> 229 ;
230 [label="forehead_width_cm <= 13.35\ngini = 0.42\nsamples = 30\nvalue = [21, 9]\nclass = male", fillcolor="#f0b78e"] ;
229 -> 230 ;
231 [label="forehead_width_cm <= 13.25\ngini = 0.461\nsamples = 25\nvalue = [16, 9]\nclass = male", fillcolor="#f4c8a8"] ;
230 -> 231 ;
232 [label="forehead_height_cm <= 6.45\ngini = 0.397\nsamples = 22\nvalue = [16, 6]\nclass = male", fillcolor="#efb083"] ;
231 -> 232 ;
233 [label="forehead_width_cm <= 12.75\ngini = 0.363\nsamples = 21\nvalue = [16, 5]\nclass = male", fillcolor="#eda877"] ;
232 -> 233 ;
234 [label="forehead_width_cm <= 12.65\ngini = 0.415\nsamples = 17\nvalue = [12, 5]\nclass = male", fillcolor="#f0b58b"] ;
233 -> 234 ;
235 [label="forehead_height_cm <= 5.65\ngini = 0.375\nsamples = 16\nvalue = [12, 4]\nclass = male", fillcolor="#eeab7b"] ;
234 -> 235 ;
236 [label="gini = 0.0\nsamples = 7\nvalue = [7, 0]\nclass = male", fillcolor="#e58139"] ;
235 -> 236 ;
237 [label="forehead_height_cm <= 5.85\ngini = 0.494\nsamples = 9\nvalue = [5, 4]\nclass = male", fillcolor="#fae6d7"] ;
235 -> 237 ;
238 [label="gini = 0.0\nsamples = 2\nvalue = [0, 2]\nclass = female", fillcolor="#399de5"] ;
237 -> 238 ;
239 [label="forehead_width_cm <= 11.6\ngini = 0.408\nsamples = 7\nvalue = [5, 2]\nclass = male", fillcolor="#efb388"] ;
237 -> 239 ;
240 [label="gini = 0.0\nsamples = 2\nvalue = [2, 0]\nclass = male", fillcolor="#e58139"] ;
239 -> 240 ;
241 [label="forehead_height_cm <= 6.15\ngini = 0.48\nsamples = 5\nvalue = [3, 2]\nclass = male", fillcolor="#f6d5bd"] ;
239 -> 241 ;
242 [label="forehead_width_cm <= 11.75\ngini = 0.375\nsamples = 4\nvalue = [3, 1]\nclass = male", fillcolor="#eeab7b"] ;
241 -> 242 ;
243 [label="gini = 0.0\nsamples = 1\nvalue = [0, 1]\nclass = female", fillcolor="#399de5"] ;
242 -> 243 ;
244 [label="gini = 0.0\nsamples = 3\nvalue = [3, 0]\nclass = male", fillcolor="#e58139"] ;
242 -> 244 ;
245 [label="gini = 0.0\nsamples = 1\nvalue = [0, 1]\nclass = female", fillcolor="#399de5"] ;
241 -> 245 ;
246 [label="gini = 0.0\nsamples = 1\nvalue = [0, 1]\nclass = female", fillcolor="#399de5"] ;
234 -> 246 ;
247 [label="gini = 0.0\nsamples = 4\nvalue = [4, 0]\nclass = male", fillcolor="#e58139"] ;
233 -> 247 ;
248 [label="gini = 0.0\nsamples = 1\nvalue = [0, 1]\nclass = female", fillcolor="#399de5"] ;
232 -> 248 ;
249 [label="gini = 0.0\nsamples = 3\nvalue = [0, 3]\nclass = female", fillcolor="#399de5"] ;
231 -> 249 ;
250 [label="gini = 0.0\nsamples = 5\nvalue = [5, 0]\nclass = male", fillcolor="#e58139"] ;
230 -> 250 ;
251 [label="forehead_height_cm <= 6.2\ngini = 0.346\nsamples = 9\nvalue = [2, 7]\nclass = female", fillcolor="#72b9ec"] ;
229 -> 251 ;
252 [label="gini = 0.0\nsamples = 6\nvalue = [0, 6]\nclass = female", fillcolor="#399de5"] ;
251 -> 252 ;
253 [label="forehead_height_cm <= 6.35\ngini = 0.444\nsamples = 3\nvalue = [2, 1]\nclass = male", fillcolor="#f2c09c"] ;
251 -> 253 ;
254 [label="gini = 0.5\nsamples = 2\nvalue = [1, 1]\nclass = male", fillcolor="#ffffff"] ;
253 -> 254 ;
255 [label="gini = 0.0\nsamples = 1\nvalue = [1, 0]\nclass = male", fillcolor="#e58139"] ;
253 -> 255 ;
256 [label="gini = 0.0\nsamples = 7\nvalue = [0, 7]\nclass = female", fillcolor="#399de5"] ;
228 -> 256 ;
257 [label="lips_thin <= 0.5\ngini = 0.206\nsamples = 223\nvalue = [26, 197]\nclass = female", fillcolor="#53aae8"] ;
215 -> 257 ;
258 [label="forehead_height_cm <= 5.65\ngini = 0.491\nsamples = 51\nvalue = [22, 29]\nclass = female", fillcolor="#cfe7f9"] ;
257 -> 258 ;
259 [label="forehead_width_cm <= 14.3\ngini = 0.305\nsamples = 16\nvalue = [13, 3]\nclass = male", fillcolor="#eb9e67"] ;
258 -> 259 ;
260 [label="forehead_height_cm <= 5.15\ngini = 0.133\nsamples = 14\nvalue = [13, 1]\nclass = male", fillcolor="#e78b48"] ;
259 -> 260 ;
261 [label="forehead_width_cm <= 11.7\ngini = 0.5\nsamples = 2\nvalue = [1, 1]\nclass = male", fillcolor="#ffffff"] ;
260 -> 261 ;
262 [label="gini = 0.0\nsamples = 1\nvalue = [1, 0]\nclass = male", fillcolor="#e58139"] ;
261 -> 262 ;
263 [label="gini = 0.0\nsamples = 1\nvalue = [0, 1]\nclass = female", fillcolor="#399de5"] ;
261 -> 263 ;
264 [label="gini = 0.0\nsamples = 12\nvalue = [12, 0]\nclass = male", fillcolor="#e58139"] ;
260 -> 264 ;
265 [label="gini = 0.0\nsamples = 2\nvalue = [0, 2]\nclass = female", fillcolor="#399de5"] ;
259 -> 265 ;
266 [label="forehead_width_cm <= 11.65\ngini = 0.382\nsamples = 35\nvalue = [9, 26]\nclass = female", fillcolor="#7ebfee"] ;
258 -> 266 ;
267 [label="gini = 0.0\nsamples = 2\nvalue = [2, 0]\nclass = male", fillcolor="#e58139"] ;
266 -> 267 ;
268 [label="forehead_height_cm <= 6.55\ngini = 0.334\nsamples = 33\nvalue = [7, 26]\nclass = female", fillcolor="#6eb7ec"] ;
266 -> 268 ;
269 [label="forehead_height_cm <= 6.45\ngini = 0.423\nsamples = 23\nvalue = [7, 16]\nclass = female", fillcolor="#90c8f0"] ;
268 -> 269 ;
270 [label="forehead_width_cm <= 14.25\ngini = 0.32\nsamples = 20\nvalue = [4, 16]\nclass = female", fillcolor="#6ab6ec"] ;
269 -> 270 ;
271 [label="forehead_height_cm <= 5.95\ngini = 0.408\nsamples = 14\nvalue = [4, 10]\nclass = female", fillcolor="#88c4ef"] ;
270 -> 271 ;
272 [label="gini = 0.0\nsamples = 5\nvalue = [0, 5]\nclass = female", fillcolor="#399de5"] ;
271 -> 272 ;
273 [label="forehead_height_cm <= 6.1\ngini = 0.494\nsamples = 9\nvalue = [4, 5]\nclass = female", fillcolor="#d7ebfa"] ;
271 -> 273 ;
274 [label="gini = 0.0\nsamples = 1\nvalue = [1, 0]\nclass = male", fillcolor="#e58139"] ;
273 -> 274 ;
275 [label="forehead_height_cm <= 6.35\ngini = 0.469\nsamples = 8\nvalue = [3, 5]\nclass = female", fillcolor="#b0d8f5"] ;
273 -> 275 ;
276 [label="forehead_height_cm <= 6.25\ngini = 0.408\nsamples = 7\nvalue = [2, 5]\nclass = female", fillcolor="#88c4ef"] ;
275 -> 276 ;
277 [label="forehead_width_cm <= 12.15\ngini = 0.48\nsamples = 5\nvalue = [2, 3]\nclass = female", fillcolor="#bddef6"] ;
276 -> 277 ;
278 [label="gini = 0.0\nsamples = 1\nvalue = [0, 1]\nclass = female", fillcolor="#399de5"] ;
277 -> 278 ;
279 [label="forehead_width_cm <= 13.05\ngini = 0.5\nsamples = 4\nvalue = [2, 2]\nclass = male", fillcolor="#ffffff"] ;
277 -> 279 ;
280 [label="gini = 0.0\nsamples = 1\nvalue = [1, 0]\nclass = male", fillcolor="#e58139"] ;
279 -> 280 ;
281 [label="forehead_width_cm <= 13.75\ngini = 0.444\nsamples = 3\nvalue = [1, 2]\nclass = female", fillcolor="#9ccef2"] ;
279 -> 281 ;
282 [label="gini = 0.0\nsamples = 1\nvalue = [0, 1]\nclass = female", fillcolor="#399de5"] ;
281 -> 282 ;
283 [label="forehead_width_cm <= 14.1\ngini = 0.5\nsamples = 2\nvalue = [1, 1]\nclass = male", fillcolor="#ffffff"] ;
281 -> 283 ;
284 [label="gini = 0.0\nsamples = 1\nvalue = [1, 0]\nclass = male", fillcolor="#e58139"] ;
283 -> 284 ;
285 [label="gini = 0.0\nsamples = 1\nvalue = [0, 1]\nclass = female", fillcolor="#399de5"] ;
283 -> 285 ;
286 [label="gini = 0.0\nsamples = 2\nvalue = [0, 2]\nclass = female", fillcolor="#399de5"] ;
276 -> 286 ;
287 [label="gini = 0.0\nsamples = 1\nvalue = [1, 0]\nclass = male", fillcolor="#e58139"] ;
275 -> 287 ;
288 [label="gini = 0.0\nsamples = 6\nvalue = [0, 6]\nclass = female", fillcolor="#399de5"] ;
270 -> 288 ;
289 [label="gini = 0.0\nsamples = 3\nvalue = [3, 0]\nclass = male", fillcolor="#e58139"] ;
269 -> 289 ;
290 [label="gini = 0.0\nsamples = 10\nvalue = [0, 10]\nclass = female", fillcolor="#399de5"] ;
268 -> 290 ;
291 [label="forehead_width_cm <= 11.95\ngini = 0.045\nsamples = 172\nvalue = [4, 168]\nclass = female", fillcolor="#3e9fe6"] ;
257 -> 291 ;
292 [label="forehead_width_cm <= 11.75\ngini = 0.133\nsamples = 28\nvalue = [2, 26]\nclass = female", fillcolor="#48a5e7"] ;
291 -> 292 ;
293 [label="gini = 0.0\nsamples = 9\nvalue = [0, 9]\nclass = female", fillcolor="#399de5"] ;
292 -> 293 ;
294 [label="forehead_height_cm <= 6.6\ngini = 0.188\nsamples = 19\nvalue = [2, 17]\nclass = female", fillcolor="#50a9e8"] ;
292 -> 294 ;
295 [label="forehead_height_cm <= 6.45\ngini = 0.278\nsamples = 12\nvalue = [2, 10]\nclass = female", fillcolor="#61b1ea"] ;
294 -> 295 ;
296 [label="forehead_width_cm <= 11.85\ngini = 0.165\nsamples = 11\nvalue = [1, 10]\nclass = female", fillcolor="#4da7e8"] ;
295 -> 296 ;
297 [label="gini = 0.0\nsamples = 6\nvalue = [0, 6]\nclass = female", fillcolor="#399de5"] ;
296 -> 297 ;
298 [label="forehead_height_cm <= 5.6\ngini = 0.32\nsamples = 5\nvalue = [1, 4]\nclass = female", fillcolor="#6ab6ec"] ;
296 -> 298 ;
299 [label="forehead_height_cm <= 5.3\ngini = 0.444\nsamples = 3\nvalue = [1, 2]\nclass = female", fillcolor="#9ccef2"] ;
298 -> 299 ;
300 [label="gini = 0.0\nsamples = 1\nvalue = [0, 1]\nclass = female", fillcolor="#399de5"] ;
299 -> 300 ;
301 [label="gini = 0.5\nsamples = 2\nvalue = [1, 1]\nclass = male", fillcolor="#ffffff"] ;
299 -> 301 ;
302 [label="gini = 0.0\nsamples = 2\nvalue = [0, 2]\nclass = female", fillcolor="#399de5"] ;
298 -> 302 ;
303 [label="gini = 0.0\nsamples = 1\nvalue = [1, 0]\nclass = male", fillcolor="#e58139"] ;
295 -> 303 ;
304 [label="gini = 0.0\nsamples = 7\nvalue = [0, 7]\nclass = female", fillcolor="#399de5"] ;
294 -> 304 ;
305 [label="forehead_width_cm <= 13.75\ngini = 0.027\nsamples = 144\nvalue = [2, 142]\nclass = female", fillcolor="#3c9ee5"] ;
291 -> 305 ;
306 [label="gini = 0.0\nsamples = 71\nvalue = [0, 71]\nclass = female", fillcolor="#399de5"] ;
305 -> 306 ;
307 [label="forehead_width_cm <= 13.85\ngini = 0.053\nsamples = 73\nvalue = [2, 71]\nclass = female", fillcolor="#3fa0e6"] ;
305 -> 307 ;
308 [label="forehead_height_cm <= 6.15\ngini = 0.278\nsamples = 6\nvalue = [1, 5]\nclass = female", fillcolor="#61b1ea"] ;
307 -> 308 ;
309 [label="gini = 0.0\nsamples = 3\nvalue = [0, 3]\nclass = female", fillcolor="#399de5"] ;
308 -> 309 ;
310 [label="forehead_height_cm <= 6.45\ngini = 0.444\nsamples = 3\nvalue = [1, 2]\nclass = female", fillcolor="#9ccef2"] ;
308 -> 310 ;
311 [label="gini = 0.5\nsamples = 2\nvalue = [1, 1]\nclass = male", fillcolor="#ffffff"] ;
310 -> 311 ;
312 [label="gini = 0.0\nsamples = 1\nvalue = [0, 1]\nclass = female", fillcolor="#399de5"] ;
310 -> 312 ;
313 [label="forehead_width_cm <= 14.35\ngini = 0.029\nsamples = 67\nvalue = [1, 66]\nclass = female", fillcolor="#3c9ee5"] ;
307 -> 313 ;
314 [label="forehead_width_cm <= 14.25\ngini = 0.095\nsamples = 20\nvalue = [1, 19]\nclass = female", fillcolor="#43a2e6"] ;
313 -> 314 ;
315 [label="gini = 0.0\nsamples = 17\nvalue = [0, 17]\nclass = female", fillcolor="#399de5"] ;
314 -> 315 ;
316 [label="forehead_height_cm <= 5.75\ngini = 0.444\nsamples = 3\nvalue = [1, 2]\nclass = female", fillcolor="#9ccef2"] ;
314 -> 316 ;
317 [label="gini = 0.0\nsamples = 2\nvalue = [0, 2]\nclass = female", fillcolor="#399de5"] ;
316 -> 317 ;
318 [label="gini = 0.0\nsamples = 1\nvalue = [1, 0]\nclass = male", fillcolor="#e58139"] ;
316 -> 318 ;
319 [label="gini = 0.0\nsamples = 47\nvalue = [0, 47]\nclass = female", fillcolor="#399de5"] ;
313 -> 319 ;
320 [label="forehead_width_cm <= 11.45\ngini = 0.029\nsamples = 1754\nvalue = [26, 1728]\nclass = female", fillcolor="#3c9ee5"] ;
214 -> 320 ;
321 [label="gini = 0.0\nsamples = 2\nvalue = [2, 0]\nclass = male", fillcolor="#e58139"] ;
320 -> 321 ;
322 [label="distance_nose_to_lip_long <= 0.5\ngini = 0.027\nsamples = 1752\nvalue = [24, 1728]\nclass = female", fillcolor="#3c9ee5"] ;
320 -> 322 ;
323 [label="lips_thin <= 0.5\ngini = 0.162\nsamples = 236\nvalue = [21, 215]\nclass = female", fillcolor="#4ca7e8"] ;
322 -> 323 ;
324 [label="forehead_height_cm <= 6.45\ngini = 0.461\nsamples = 50\nvalue = [18, 32]\nclass = female", fillcolor="#a8d4f4"] ;
323 -> 324 ;
325 [label="forehead_width_cm <= 14.15\ngini = 0.499\nsamples = 38\nvalue = [18, 20]\nclass = female", fillcolor="#ebf5fc"] ;
324 -> 325 ;
326 [label="forehead_width_cm <= 13.95\ngini = 0.487\nsamples = 31\nvalue = [18, 13]\nclass = male", fillcolor="#f8dcc8"] ;
325 -> 326 ;
327 [label="forehead_height_cm <= 5.45\ngini = 0.497\nsamples = 28\nvalue = [15, 13]\nclass = male", fillcolor="#fceee5"] ;
326 -> 327 ;
328 [label="forehead_width_cm <= 13.35\ngini = 0.42\nsamples = 10\nvalue = [7, 3]\nclass = male", fillcolor="#f0b78e"] ;
327 -> 328 ;
329 [label="forehead_width_cm <= 12.05\ngini = 0.49\nsamples = 7\nvalue = [4, 3]\nclass = male", fillcolor="#f8e0ce"] ;
328 -> 329 ;
330 [label="gini = 0.0\nsamples = 2\nvalue = [2, 0]\nclass = male", fillcolor="#e58139"] ;
329 -> 330 ;
331 [label="forehead_width_cm <= 12.45\ngini = 0.48\nsamples = 5\nvalue = [2, 3]\nclass = female", fillcolor="#bddef6"] ;
329 -> 331 ;
332 [label="gini = 0.0\nsamples = 2\nvalue = [0, 2]\nclass = female", fillcolor="#399de5"] ;
331 -> 332 ;
333 [label="forehead_width_cm <= 13.0\ngini = 0.444\nsamples = 3\nvalue = [2, 1]\nclass = male", fillcolor="#f2c09c"] ;
331 -> 333 ;
334 [label="gini = 0.0\nsamples = 2\nvalue = [2, 0]\nclass = male", fillcolor="#e58139"] ;
333 -> 334 ;
335 [label="gini = 0.0\nsamples = 1\nvalue = [0, 1]\nclass = female", fillcolor="#399de5"] ;
333 -> 335 ;
336 [label="gini = 0.0\nsamples = 3\nvalue = [3, 0]\nclass = male", fillcolor="#e58139"] ;
328 -> 336 ;
337 [label="forehead_width_cm <= 13.35\ngini = 0.494\nsamples = 18\nvalue = [8, 10]\nclass = female", fillcolor="#d7ebfa"] ;
327 -> 337 ;
338 [label="forehead_height_cm <= 6.25\ngini = 0.498\nsamples = 15\nvalue = [8, 7]\nclass = male", fillcolor="#fcefe6"] ;
337 -> 338 ;
339 [label="forehead_height_cm <= 5.65\ngini = 0.497\nsamples = 13\nvalue = [6, 7]\nclass = female", fillcolor="#e3f1fb"] ;
338 -> 339 ;
340 [label="forehead_width_cm <= 12.4\ngini = 0.375\nsamples = 4\nvalue = [1, 3]\nclass = female", fillcolor="#7bbeee"] ;
339 -> 340 ;
341 [label="forehead_height_cm <= 5.55\ngini = 0.5\nsamples = 2\nvalue = [1, 1]\nclass = male", fillcolor="#ffffff"] ;
340 -> 341 ;
342 [label="gini = 0.0\nsamples = 1\nvalue = [0, 1]\nclass = female", fillcolor="#399de5"] ;
341 -> 342 ;
343 [label="gini = 0.0\nsamples = 1\nvalue = [1, 0]\nclass = male", fillcolor="#e58139"] ;
341 -> 343 ;
344 [label="gini = 0.0\nsamples = 2\nvalue = [0, 2]\nclass = female", fillcolor="#399de5"] ;
340 -> 344 ;
345 [label="forehead_height_cm <= 6.05\ngini = 0.494\nsamples = 9\nvalue = [5, 4]\nclass = male", fillcolor="#fae6d7"] ;
339 -> 345 ;
346 [label="forehead_width_cm <= 12.35\ngini = 0.32\nsamples = 5\nvalue = [4, 1]\nclass = male", fillcolor="#eca06a"] ;
345 -> 346 ;
347 [label="forehead_height_cm <= 5.9\ngini = 0.5\nsamples = 2\nvalue = [1, 1]\nclass = male", fillcolor="#ffffff"] ;
346 -> 347 ;
348 [label="gini = 0.0\nsamples = 1\nvalue = [0, 1]\nclass = female", fillcolor="#399de5"] ;
347 -> 348 ;
349 [label="gini = 0.0\nsamples = 1\nvalue = [1, 0]\nclass = male", fillcolor="#e58139"] ;
347 -> 349 ;
350 [label="gini = 0.0\nsamples = 3\nvalue = [3, 0]\nclass = male", fillcolor="#e58139"] ;
346 -> 350 ;
351 [label="forehead_width_cm <= 12.05\ngini = 0.375\nsamples = 4\nvalue = [1, 3]\nclass = female", fillcolor="#7bbeee"] ;
345 -> 351 ;
352 [label="gini = 0.0\nsamples = 2\nvalue = [0, 2]\nclass = female", fillcolor="#399de5"] ;
351 -> 352 ;
353 [label="forehead_height_cm <= 6.15\ngini = 0.5\nsamples = 2\nvalue = [1, 1]\nclass = male", fillcolor="#ffffff"] ;
351 -> 353 ;
354 [label="gini = 0.0\nsamples = 1\nvalue = [0, 1]\nclass = female", fillcolor="#399de5"] ;
353 -> 354 ;
355 [label="gini = 0.0\nsamples = 1\nvalue = [1, 0]\nclass = male", fillcolor="#e58139"] ;
353 -> 355 ;
356 [label="gini = 0.0\nsamples = 2\nvalue = [2, 0]\nclass = male", fillcolor="#e58139"] ;
338 -> 356 ;
357 [label="gini = 0.0\nsamples = 3\nvalue = [0, 3]\nclass = female", fillcolor="#399de5"] ;
337 -> 357 ;
358 [label="gini = 0.0\nsamples = 3\nvalue = [3, 0]\nclass = male", fillcolor="#e58139"] ;
326 -> 358 ;
359 [label="gini = 0.0\nsamples = 7\nvalue = [0, 7]\nclass = female", fillcolor="#399de5"] ;
325 -> 359 ;
360 [label="gini = 0.0\nsamples = 12\nvalue = [0, 12]\nclass = female", fillcolor="#399de5"] ;
324 -> 360 ;
361 [label="forehead_width_cm <= 11.55\ngini = 0.032\nsamples = 186\nvalue = [3, 183]\nclass = female", fillcolor="#3c9fe5"] ;
323 -> 361 ;
362 [label="forehead_height_cm <= 5.55\ngini = 0.444\nsamples = 3\nvalue = [1, 2]\nclass = female", fillcolor="#9ccef2"] ;
361 -> 362 ;
363 [label="gini = 0.0\nsamples = 1\nvalue = [0, 1]\nclass = female", fillcolor="#399de5"] ;
362 -> 363 ;
364 [label="forehead_height_cm <= 6.0\ngini = 0.5\nsamples = 2\nvalue = [1, 1]\nclass = male", fillcolor="#ffffff"] ;
362 -> 364 ;
365 [label="gini = 0.0\nsamples = 1\nvalue = [1, 0]\nclass = male", fillcolor="#e58139"] ;
364 -> 365 ;
366 [label="gini = 0.0\nsamples = 1\nvalue = [0, 1]\nclass = female", fillcolor="#399de5"] ;
364 -> 366 ;
367 [label="forehead_height_cm <= 5.35\ngini = 0.022\nsamples = 183\nvalue = [2, 181]\nclass = female", fillcolor="#3b9ee5"] ;
361 -> 367 ;
368 [label="forehead_width_cm <= 13.85\ngini = 0.111\nsamples = 34\nvalue = [2, 32]\nclass = female", fillcolor="#45a3e7"] ;
367 -> 368 ;
369 [label="forehead_width_cm <= 13.7\ngini = 0.165\nsamples = 22\nvalue = [2, 20]\nclass = female", fillcolor="#4da7e8"] ;
368 -> 369 ;
370 [label="forehead_height_cm <= 5.25\ngini = 0.091\nsamples = 21\nvalue = [1, 20]\nclass = female", fillcolor="#43a2e6"] ;
369 -> 370 ;
371 [label="gini = 0.0\nsamples = 15\nvalue = [0, 15]\nclass = female", fillcolor="#399de5"] ;
370 -> 371 ;
372 [label="forehead_width_cm <= 12.75\ngini = 0.278\nsamples = 6\nvalue = [1, 5]\nclass = female", fillcolor="#61b1ea"] ;
370 -> 372 ;
373 [label="gini = 0.0\nsamples = 3\nvalue = [0, 3]\nclass = female", fillcolor="#399de5"] ;
372 -> 373 ;
374 [label="forehead_width_cm <= 12.95\ngini = 0.444\nsamples = 3\nvalue = [1, 2]\nclass = female", fillcolor="#9ccef2"] ;
372 -> 374 ;
375 [label="gini = 0.0\nsamples = 1\nvalue = [1, 0]\nclass = male", fillcolor="#e58139"] ;
374 -> 375 ;
376 [label="gini = 0.0\nsamples = 2\nvalue = [0, 2]\nclass = female", fillcolor="#399de5"] ;
374 -> 376 ;
377 [label="gini = 0.0\nsamples = 1\nvalue = [1, 0]\nclass = male", fillcolor="#e58139"] ;
369 -> 377 ;
378 [label="gini = 0.0\nsamples = 12\nvalue = [0, 12]\nclass = female", fillcolor="#399de5"] ;
368 -> 378 ;
379 [label="gini = 0.0\nsamples = 149\nvalue = [0, 149]\nclass = female", fillcolor="#399de5"] ;
367 -> 379 ;
380 [label="lips_thin <= 0.5\ngini = 0.004\nsamples = 1516\nvalue = [3, 1513]\nclass = female", fillcolor="#399de5"] ;
322 -> 380 ;
381 [label="forehead_height_cm <= 6.05\ngini = 0.029\nsamples = 206\nvalue = [3, 203]\nclass = female", fillcolor="#3c9ee5"] ;
380 -> 381 ;
382 [label="forehead_width_cm <= 13.85\ngini = 0.059\nsamples = 98\nvalue = [3, 95]\nclass = female", fillcolor="#3fa0e6"] ;
381 -> 382 ;
383 [label="forehead_width_cm <= 13.75\ngini = 0.101\nsamples = 56\nvalue = [3, 53]\nclass = female", fillcolor="#44a3e6"] ;
382 -> 383 ;
384 [label="forehead_width_cm <= 12.65\ngini = 0.071\nsamples = 54\nvalue = [2, 52]\nclass = female", fillcolor="#41a1e6"] ;
383 -> 384 ;
385 [label="gini = 0.0\nsamples = 24\nvalue = [0, 24]\nclass = female", fillcolor="#399de5"] ;
384 -> 385 ;
386 [label="forehead_width_cm <= 12.75\ngini = 0.124\nsamples = 30\nvalue = [2, 28]\nclass = female", fillcolor="#47a4e7"] ;
384 -> 386 ;
387 [label="forehead_height_cm <= 5.65\ngini = 0.5\nsamples = 2\nvalue = [1, 1]\nclass = male", fillcolor="#ffffff"] ;
386 -> 387 ;
388 [label="gini = 0.0\nsamples = 1\nvalue = [0, 1]\nclass = female", fillcolor="#399de5"] ;
387 -> 388 ;
389 [label="gini = 0.0\nsamples = 1\nvalue = [1, 0]\nclass = male", fillcolor="#e58139"] ;
387 -> 389 ;
390 [label="forehead_width_cm <= 13.05\ngini = 0.069\nsamples = 28\nvalue = [1, 27]\nclass = female", fillcolor="#40a1e6"] ;
386 -> 390 ;
391 [label="forehead_width_cm <= 12.95\ngini = 0.245\nsamples = 7\nvalue = [1, 6]\nclass = female", fillcolor="#5aade9"] ;
390 -> 391 ;
392 [label="gini = 0.0\nsamples = 4\nvalue = [0, 4]\nclass = female", fillcolor="#399de5"] ;
391 -> 392 ;
393 [label="forehead_height_cm <= 5.35\ngini = 0.444\nsamples = 3\nvalue = [1, 2]\nclass = female", fillcolor="#9ccef2"] ;
391 -> 393 ;
394 [label="gini = 0.0\nsamples = 1\nvalue = [0, 1]\nclass = female", fillcolor="#399de5"] ;
393 -> 394 ;
395 [label="forehead_height_cm <= 5.6\ngini = 0.5\nsamples = 2\nvalue = [1, 1]\nclass = male", fillcolor="#ffffff"] ;
393 -> 395 ;
396 [label="gini = 0.0\nsamples = 1\nvalue = [1, 0]\nclass = male", fillcolor="#e58139"] ;
395 -> 396 ;
397 [label="gini = 0.0\nsamples = 1\nvalue = [0, 1]\nclass = female", fillcolor="#399de5"] ;
395 -> 397 ;
398 [label="gini = 0.0\nsamples = 21\nvalue = [0, 21]\nclass = female", fillcolor="#399de5"] ;
390 -> 398 ;
399 [label="forehead_height_cm <= 5.55\ngini = 0.5\nsamples = 2\nvalue = [1, 1]\nclass = male", fillcolor="#ffffff"] ;
383 -> 399 ;
400 [label="gini = 0.0\nsamples = 1\nvalue = [0, 1]\nclass = female", fillcolor="#399de5"] ;
399 -> 400 ;
401 [label="gini = 0.0\nsamples = 1\nvalue = [1, 0]\nclass = male", fillcolor="#e58139"] ;
399 -> 401 ;
402 [label="gini = 0.0\nsamples = 42\nvalue = [0, 42]\nclass = female", fillcolor="#399de5"] ;
382 -> 402 ;
403 [label="gini = 0.0\nsamples = 108\nvalue = [0, 108]\nclass = female", fillcolor="#399de5"] ;
381 -> 403 ;
404 [label="gini = 0.0\nsamples = 1310\nvalue = [0, 1310]\nclass = female", fillcolor="#399de5"] ;
380 -> 404 ;
}